{"coeffs_lr": [0.47409744119708763, 0.003571894432895385, -0.0010611641761780755, -0.015063657749406717, -0.02463847350593325, -0.006128514162524542, 0.011585961179930819, -0.0014176607346825382, -0.0016751672886929818, 0.015083836355727864, 0.0029715106606014504, 0.02211246641361286, 0.028089540677337474, -0.032055601452137775, -0.06620482329637975, 0.003319738168564852, 0.0059653962155716365, -0.04569271046429871, 0.013447146339796849, 0.046310337374061754, -0.017320210097468, -0.036234078751741, 0.0067704797041065485, 0.008914920894781058, 0.0017089868081690274, 0.004598423948815615, 0.0009479865488428701, 0.01898825603283017, 0.011006961182257476, -0.026314612179823033, 0.0006020468539817006, -0.0007679261413351297, 0.03905586910342526, 0.07358717036264342, 0.08019679077688213, 0.04740534816796521, 0.029703012110199094, -0.017112637582501616, -0.037286858297640835, -0.03041848607129878, -0.014409379441378139, -0.0054708159101742, 0.000988540169017324, 0.008707979873346178, 0.007986699218078243, 0.00940875323546179, 0.0227444574464345, 0.01721110493384296, -0.14291883869406563, -0.04928007799299532, 0.2917478633502903, -0.22473862781638787, 0.14299239575902048, 0.050559086275620314, -0.09205633314413975, 0.0016421899748745809, -0.007033792987684527, 0.012665921510002483, -0.0046475879041208154, 0.010957712968372557, 0.006382307453474088, 0.004091171049500063, -0.033485811505889765, -0.008473750155327952, -0.051844832911903324, 0.22159106903583095, -0.058775660861189724, 0.05891186783206809, -0.028329316317025455, 0.010526709621358994, -0.0008862230580659073, -0.058003490685488296, -0.025860173721431665, -0.020001651367119507, 0.0018762440221593807, -0.015047346067617469, -0.04621515248457207, 0.08747938596279686, 0.052951597812044136, -0.018410270082988515], "coeffs_lasso": [0.4740974411970872, 0.003003157571002589, -0.004017900989982187, -0.02111252424924943, -0.0076677628358496975, -0.0, 0.0, 0.0009362092767243839, 0.0, 0.013634495693904907, 0.003662759679245034, 0.020173145957901085, 0.01910002920238081, -0.02239957174697792, -0.0658057008665654, -0.0, -0.01641212369615437, -0.000984655405406746, 0.0, 0.0, -0.0, -0.010909213582291539, 0.00287821704252944, 0.013157218592201939, 0.00021997818612187384, 0.0, 0.0, 0.014497860426445325, 0.0, -0.01993367690217749, -0.0, -0.0, 0.04131335471073126, 0.06522240200155871, 0.07212411109027435, 0.02381953588504366, 0.0, -0.0, -0.0031694532426228684, -0.012375909535581951, -0.005263588848271052, -0.008614774481316853, 0.0, 0.013068195031874001, 0.011666125045006826, 0.008836923478466948, 0.027912046504489516, 0.016503875566245177, -0.011088968361501772, -0.0, 0.0, 0.0, 0.0, 0.008236033113709946, 0.0, 0.0, 0.0, 0.0013792848380319905, 0.0, 0.00806098174090674, 0.005725532139622692, 0.0042264711357300495, -0.03321838575186544, -0.00883825378150439, 0.05888670066629322, 0.015533443057877586, 0.0, 0.0, 0.0, 0.0, -0.0, -0.0, -0.021467000065527514, -0.018507500047555615, -0.0, -0.0, -0.0, 0.0, 0.04042644637116551, 0.0], "coefs_pca": [0.4740974411970869, 0.0021264527092426187, -0.013973876398943996, -0.011954946355469086, -0.006398568608944831, -0.001447022885563605, 0.0026576043980055357, 0.0069435544702891126, 0.019614592954991447, -0.0014738576266739804, 0.00441750889526506, 0.03086123877798856, 0.007982030869146516, -0.03177076484525554, -0.08176559892655819, 0.0072141289668398514, -0.019963319790154758, -0.004497914465451556, 0.00462727616611551, 0.006860543723177398, 0.00022143978450583652, -0.013257670064136804, 0.00394338723923153, 0.011533842964844145, 0.004410221160836135, -0.004483423182431794, -0.0006113494623349244, 0.020670138495679925, -0.0010127062180826547, -0.024401521425140165, 0.0025046922608166627, -0.001964686845089822, 0.037138042369026444, 0.03306376775559218, 0.028851975100128525, 0.02400468008082178, 0.019610250869096832, 0.015061425182409886, 0.012921382647436216, 0.009990105455743225, 0.0003618045684813005, -0.01898333036292338, 0.0006290217312295843, 0.014849648446965704, 0.01409288141067803, 0.007437545951935171, 0.03526923076362302, 0.014717147147299287, 0.0061507531678676374, 0.004484421731615801, 0.0022452244225016327, 3.103544335970095e-05, -0.0023418654345350636, -0.00497528279717482, -0.00741598213388611, -0.008878799194923955, 0.007838474804277584, 0.013196508311647683, -0.01366376760618548, 0.018024522483282984, 0.0038524530135459743, 0.009728111439711015, -0.0357562290820599, -0.018782329334336878, 0.018223086075534405, 0.015388950572090443, 0.012476102724911977, 0.009220825707699042, 0.0059762587522781355, 0.002941082500207833, -0.00027926533678054866, -0.003654822940848717, -0.0056944292869372205, -0.006055199823584233, -0.006745891975359087, 0.0002686088817421325, 0.0017147031710928527, 0.0036623538107415973, 0.01284969379451964, 0.0179522169608683], "tags": ["bias", "PAr10", "PAr30", "PAr40", "PAr50", "PAr60", "PAr70", "PAr80", "PAr90", "PAr95", "PAr100", "PAf95", "PAf90", "PAf80", "PAf40", "PAf20", "PBr10", "PBr20", "PBr30", "PBr40", "PBr50", "PBr60", "PBr70", "PBr80", "PBr90", "PBr95", "PBr100", "PBf95", "PBf90", "PBf80", "PBf40", "PBf20", "PCr10", "PCr20", "PCr30", "PCr40", "PCr50", "PCr60", "PCr70", "PCr80", "PCr90", "PCr95", "PCr100", "PCf95", "PCf90", "PCf80", "PCf40", "PCf20", "PDr10", "PDr20", "PDr30", "PDr40", "PDr50", "PDr60", "PDr70", "PDr80", "PDr90", "PDr95", "PDr100", "PDf95", "PDf90", "PDf80", "PDf40", "PDf20", "PFr10", "PFr20", "PFr30", "PFr40", "PFr50", "PFr60", "PFr70", "PFr80", "PFr90", "PFr95", "PFr100", "PFf95", "PFf90", "PFf80", "PFf40", "PFf20"]}